<?xml version="1.0" encoding="UTF-8"?>
<BIF VERSION="0.3"  xmlns="http://www.cs.ubc.ca/labs/lci/fopi/ve/XMLBIFv0_3"
	xmlns:xsi="http://www.w3.org/2001/XMLSchema-instance"
	xsi:schemaLocation="http://www.cs.ubc.ca/labs/lci/fopi/ve/XMLBIFv0_3 http://www.cs.ubc.ca/labs/lci/fopi/ve/XMLBIFv0_3/XMLBIFv0_3.xsd">
<NETWORK>
<NAME>Untitled</NAME>
<PROPERTY>detailed = </PROPERTY>
<PROPERTY>short = </PROPERTY>

<VARIABLE TYPE="nature">
	<NAME>There is inferior plutonium</NAME>
	<OUTCOME>T</OUTCOME>
	<OUTCOME>F</OUTCOME>
	<PROPERTY>position = (7192.03662109375, 5044.2646484375)</PROPERTY>
</VARIABLE>

<VARIABLE TYPE="nature">
	<NAME>There is low Quality Heavy Water</NAME>
	<OUTCOME>T</OUTCOME>
	<OUTCOME>F</OUTCOME>
	<PROPERTY>position = (7836.72265625, 5037.1796875)</PROPERTY>
</VARIABLE>

<VARIABLE TYPE="nature">
	<NAME>Core meltdown</NAME>
	<OUTCOME>T</OUTCOME>
	<OUTCOME>F</OUTCOME>
	<PROPERTY>position = (7493.83544921875, 5215.70849609375)</PROPERTY>
</VARIABLE>

<VARIABLE TYPE="nature">
	<NAME>Glow-in-the-dark Homer</NAME>
	<OUTCOME>T</OUTCOME>
	<OUTCOME>F</OUTCOME>
	<PROPERTY>position = (7128.27734375, 5378.65087890625)</PROPERTY>
</VARIABLE>

<VARIABLE TYPE="nature">
	<NAME>Melted slurpees</NAME>
	<OUTCOME>T</OUTCOME>
	<OUTCOME>F</OUTCOME>
	<PROPERTY>position = (7808.38427734375, 5392.81982421875)</PROPERTY>
</VARIABLE>

<VARIABLE TYPE="nature">
	<NAME>Stingy</NAME>
	<OUTCOME>T</OUTCOME>
	<OUTCOME>F</OUTCOME>
	<PROPERTY>position = (7478.0, 5039.0)</PROPERTY>
</VARIABLE>

<DEFINITION>
	<FOR>There is inferior plutonium</FOR>
	<GIVEN>Stingy</GIVEN>
	<TABLE>0.3 0.7 1.0E-4 0.9999</TABLE>
</DEFINITION>

<DEFINITION>
	<FOR>There is low Quality Heavy Water</FOR>
	<GIVEN>Stingy</GIVEN>
	<TABLE>0.4 0.6 2.0E-4 0.9998</TABLE>
</DEFINITION>

<DEFINITION>
	<FOR>Core meltdown</FOR>
	<GIVEN>There is inferior plutonium</GIVEN>
	<GIVEN>There is low Quality Heavy Water</GIVEN>
	<TABLE>0.94 0.06 0.7 0.3 0.8 0.2 0.06 0.94</TABLE>
</DEFINITION>

<DEFINITION>
	<FOR>Glow-in-the-dark Homer</FOR>
	<GIVEN>Core meltdown</GIVEN>
	<TABLE>0.5 0.5 0.05 0.95</TABLE>
</DEFINITION>

<DEFINITION>
	<FOR>Melted slurpees</FOR>
	<GIVEN>Core meltdown</GIVEN>
	<TABLE>0.9 0.1 0.1 0.9</TABLE>
</DEFINITION>

<DEFINITION>
	<FOR>Stingy</FOR>
	<TABLE>0.99 0.01</TABLE>
</DEFINITION>
</NETWORK>
</BIF>
