<?xml version="1.0" encoding="UTF-8"?>
<BIF VERSION="0.3"  xmlns="http://www.cs.ubc.ca/labs/lci/fopi/ve/XMLBIFv0_3"
	xmlns:xsi="http://www.w3.org/2001/XMLSchema-instance"
	xsi:schemaLocation="http://www.cs.ubc.ca/labs/lci/fopi/ve/XMLBIFv0_3 http://www.cs.ubc.ca/labs/lci/fopi/ve/XMLBIFv0_3/XMLBIFv0_3.xsd">
<NETWORK>
<NAME>Untitled</NAME>
<PROPERTY>detailed = </PROPERTY>
<PROPERTY>short = </PROPERTY>

<VARIABLE TYPE="nature">
	<NAME>There is inferior plutonium</NAME>
	<OUTCOME>T</OUTCOME>
	<OUTCOME>F</OUTCOME>
	<PROPERTY>position = (7191.03662109375, 5054.2646484375)</PROPERTY>
</VARIABLE>

<VARIABLE TYPE="nature">
	<NAME>There is low Quality Heavy Water</NAME>
	<OUTCOME>T</OUTCOME>
	<OUTCOME>F</OUTCOME>
	<OBS>T</OBS>
	<PROPERTY>position = (7835.72265625, 5047.1796875)</PROPERTY>
</VARIABLE>

<VARIABLE TYPE="nature">
	<NAME>Core meltdown</NAME>
	<OUTCOME>T</OUTCOME>
	<OUTCOME>F</OUTCOME>
	<OBS>T</OBS>
	<PROPERTY>position = (7492.83544921875, 5225.70849609375)</PROPERTY>
</VARIABLE>

<VARIABLE TYPE="nature">
	<NAME>Glow-in-the-dark Homer</NAME>
	<OUTCOME>T</OUTCOME>
	<OUTCOME>F</OUTCOME>
	<PROPERTY>position = (7127.27734375, 5388.65087890625)</PROPERTY>
</VARIABLE>

<VARIABLE TYPE="nature">
	<NAME>Melted slurpees</NAME>
	<OUTCOME>T</OUTCOME>
	<OUTCOME>F</OUTCOME>
	<PROPERTY>position = (7807.38427734375, 5402.81982421875)</PROPERTY>
</VARIABLE>

<DEFINITION>
	<FOR>There is inferior plutonium</FOR>
	<TABLE>0.3 0.7</TABLE>
</DEFINITION>

<DEFINITION>
	<FOR>There is low Quality Heavy Water</FOR>
	<TABLE>0.4 0.6</TABLE>
</DEFINITION>

<DEFINITION>
	<FOR>Core meltdown</FOR>
	<GIVEN>There is inferior plutonium</GIVEN>
	<GIVEN>There is low Quality Heavy Water</GIVEN>
	<TABLE>1.0 0.0 1.0 0.0 1.0 0.0 0.0 1.0</TABLE>
</DEFINITION>

<DEFINITION>
	<FOR>Glow-in-the-dark Homer</FOR>
	<GIVEN>Core meltdown</GIVEN>
	<TABLE>1.0 0.0 0.0 1.0</TABLE>
</DEFINITION>

<DEFINITION>
	<FOR>Melted slurpees</FOR>
	<GIVEN>Core meltdown</GIVEN>
	<TABLE>1.0 0.0 0.0 1.0</TABLE>
</DEFINITION>
</NETWORK>
</BIF>
