<?xml version="1.0" encoding="UTF-8"?>
<BIF VERSION="0.3"  xmlns="http://www.cs.ubc.ca/labs/lci/fopi/ve/XMLBIFv0_3"
	xmlns:xsi="http://www.w3.org/2001/XMLSchema-instance"
	xsi:schemaLocation="http://www.cs.ubc.ca/labs/lci/fopi/ve/XMLBIFv0_3 http://www.cs.ubc.ca/labs/lci/fopi/ve/XMLBIFv0_3/XMLBIFv0_3.xsd">
<NETWORK>
<NAME>Untitled</NAME>
<PROPERTY>detailed = </PROPERTY>
<PROPERTY>short = </PROPERTY>

<VARIABLE TYPE="nature">
	<NAME>ASL</NAME>
	<OUTCOME>T</OUTCOME>
	<OUTCOME>F</OUTCOME>
	<PROPERTY>position = (7092.94384765625, 5050.451171875)</PROPERTY>
</VARIABLE>

<VARIABLE TYPE="nature">
	<NAME>CM</NAME>
	<OUTCOME>T</OUTCOME>
	<OUTCOME>F</OUTCOME>
	<OBS>T</OBS>
	<PROPERTY>position = (7092.05615234375, 5199.548828125)</PROPERTY>
</VARIABLE>

<VARIABLE TYPE="nature">
	<NAME>EGD</NAME>
	<OUTCOME>T</OUTCOME>
	<OUTCOME>F</OUTCOME>
	<PROPERTY>position = (7238.0, 5117.0)</PROPERTY>
</VARIABLE>

<VARIABLE TYPE="nature">
	<NAME>LHW</NAME>
	<OUTCOME>T</OUTCOME>
	<OUTCOME>F</OUTCOME>
	<OBS>T</OBS>
	<PROPERTY>position = (7435.0, 5108.0)</PROPERTY>
</VARIABLE>

<VARIABLE TYPE="nature">
	<NAME>IP</NAME>
	<OUTCOME>T</OUTCOME>
	<OUTCOME>F</OUTCOME>
	<PROPERTY>position = (7222.0, 5270.0)</PROPERTY>
</VARIABLE>

<DEFINITION>
	<FOR>ASL</FOR>
	<TABLE>0.4904 0.5096</TABLE>
</DEFINITION>

<DEFINITION>
	<FOR>CM</FOR>
	<GIVEN>ASL</GIVEN>
	<TABLE>0.8956 0.1044 0.09576 0.90424</TABLE>
</DEFINITION>

<DEFINITION>
	<FOR>EGD</FOR>
	<GIVEN>ASL</GIVEN>
	<GIVEN>CM</GIVEN>
	<TABLE>0.5 0.5 0.05 0.95 0.5 0.5 0.05 0.95</TABLE>
</DEFINITION>

<DEFINITION>
	<FOR>LHW</FOR>
	<GIVEN>ASL</GIVEN>
	<GIVEN>CM</GIVEN>
	<GIVEN>EGD</GIVEN>
	<TABLE>0.69016 0.30984 0.69016 0.30984 0.12 0.88 0.12 0.88 0.69016 0.30984 0.69016 0.30984 0.12 0.88 0.12 0.88</TABLE>
</DEFINITION>

<DEFINITION>
	<FOR>IP</FOR>
	<GIVEN>ASL</GIVEN>
	<GIVEN>CM</GIVEN>
	<GIVEN>EGD</GIVEN>
	<GIVEN>LHW</GIVEN>
	<TABLE>0.33 0.67 0.83 0.17 0.33 0.67 0.83 0.17 0.11 0.89 0.12 0.88 0.11 0.89 0.12 0.88 0.33 0.67 0.83 0.17 0.33 0.67 0.83 0.17 0.11 0.89 0.12 0.88 0.11 0.89 0.12 0.88</TABLE>
</DEFINITION>
</NETWORK>
</BIF>
